digraph Tree {
node [shape=box, style="filled, rounded", color="black", fontname="helvetica"] ;
edge [fontname="helvetica"] ;
0 [label=<Weather &le; 1.5<br/>entropy = 0.918<br/>samples = 6<br/>value = [2, 4]<br/>class = Yes>, fillcolor="#9ccef2"] ;
1 [label=<entropy = 0.0<br/>samples = 4<br/>value = [0, 4]<br/>class = Yes>, fillcolor="#399de5"] ;
0 -> 1 [labeldistance=2.5, labelangle=45, headlabel="True"] ;
2 [label=<entropy = 0.0<br/>samples = 2<br/>value = [2, 0]<br/>class = No>, fillcolor="#e58139"] ;
0 -> 2 [labeldistance=2.5, labelangle=-45, headlabel="False"] ;
}
